digraph Tree {
node [shape=box, style="filled, rounded", color="black", fontname="helvetica"] ;
edge [fontname="helvetica"] ;
0 [label="height <= -1.479\ngini = 0.497\nsamples = 240\nvalue = [110, 130]\nclass = like", fillcolor="#e1f0fb"] ;
1 [label="gender <= -0.008\ngini = 0.278\nsamples = 6\nvalue = [1, 5]\nclass = like", fillcolor="#61b1ea"] ;
0 -> 1 [labeldistance=2.5, labelangle=45, headlabel="True"] ;
2 [label="gini = 0.0\nsamples = 4\nvalue = [0, 4]\nclass = like", fillcolor="#399de5"] ;
1 -> 2 ;
3 [label="gini = 0.5\nsamples = 2\nvalue = [1, 1]\nclass = dislike", fillcolor="#ffffff"] ;
1 -> 3 ;
4 [label="height <= 1.696\ngini = 0.498\nsamples = 234\nvalue = [109, 125]\nclass = like", fillcolor="#e6f2fc"] ;
0 -> 4 [labeldistance=2.5, labelangle=-45, headlabel="False"] ;
5 [label="height <= 1.414\ngini = 0.496\nsamples = 218\nvalue = [99, 119]\nclass = like", fillcolor="#deeffb"] ;
4 -> 5 ;
6 [label="height <= 1.202\ngini = 0.497\nsamples = 207\nvalue = [96, 111]\nclass = like", fillcolor="#e4f2fb"] ;
5 -> 6 ;
7 [label="height <= 1.132\ngini = 0.495\nsamples = 198\nvalue = [89, 109]\nclass = like", fillcolor="#dbedfa"] ;
6 -> 7 ;
8 [label="height <= 1.061\ngini = 0.497\nsamples = 192\nvalue = [89, 103]\nclass = like", fillcolor="#e4f2fb"] ;
7 -> 8 ;
9 [label="height <= 0.779\ngini = 0.496\nsamples = 187\nvalue = [85, 102]\nclass = like", fillcolor="#deeffb"] ;
8 -> 9 ;
10 [label="height <= 0.567\ngini = 0.499\nsamples = 171\nvalue = [81, 90]\nclass = like", fillcolor="#ebf5fc"] ;
9 -> 10 ;
11 [label="height <= 0.285\ngini = 0.497\nsamples = 160\nvalue = [74, 86]\nclass = like", fillcolor="#e3f1fb"] ;
10 -> 11 ;
12 [label="height <= 0.144\ngini = 0.499\nsamples = 143\nvalue = [69, 74]\nclass = like", fillcolor="#f2f8fd"] ;
11 -> 12 ;
13 [label="height <= 0.003\ngini = 0.498\nsamples = 135\nvalue = [63, 72]\nclass = like", fillcolor="#e6f3fc"] ;
12 -> 13 ;
14 [label="height <= -0.068\ngini = 0.5\nsamples = 123\nvalue = [60, 63]\nclass = like", fillcolor="#f6fafe"] ;
13 -> 14 ;
15 [label="height <= -0.279\ngini = 0.499\nsamples = 115\nvalue = [55, 60]\nclass = like", fillcolor="#eff7fd"] ;
14 -> 15 ;
16 [label="height <= -0.914\ngini = 0.5\nsamples = 105\nvalue = [52, 53]\nclass = like", fillcolor="#fbfdff"] ;
15 -> 16 ;
17 [label="height <= -1.055\ngini = 0.496\nsamples = 44\nvalue = [20, 24]\nclass = like", fillcolor="#deeffb"] ;
16 -> 17 ;
18 [label="height <= -1.196\ngini = 0.498\nsamples = 36\nvalue = [19, 17]\nclass = dislike", fillcolor="#fcf2ea"] ;
17 -> 18 ;
19 [label="age <= 0.008\ngini = 0.499\nsamples = 29\nvalue = [14, 15]\nclass = like", fillcolor="#f2f8fd"] ;
18 -> 19 ;
20 [label="height <= -1.408\ngini = 0.48\nsamples = 15\nvalue = [9, 6]\nclass = dislike", fillcolor="#f6d5bd"] ;
19 -> 20 ;
21 [label="gini = 0.0\nsamples = 1\nvalue = [0, 1]\nclass = like", fillcolor="#399de5"] ;
20 -> 21 ;
22 [label="height <= -1.267\ngini = 0.459\nsamples = 14\nvalue = [9, 5]\nclass = dislike", fillcolor="#f3c7a7"] ;
20 -> 22 ;
23 [label="height <= -1.337\ngini = 0.444\nsamples = 9\nvalue = [6, 3]\nclass = dislike", fillcolor="#f2c09c"] ;
22 -> 23 ;
24 [label="gini = 0.444\nsamples = 3\nvalue = [2, 1]\nclass = dislike", fillcolor="#f2c09c"] ;
23 -> 24 ;
25 [label="gini = 0.444\nsamples = 6\nvalue = [4, 2]\nclass = dislike", fillcolor="#f2c09c"] ;
23 -> 25 ;
26 [label="gini = 0.48\nsamples = 5\nvalue = [3, 2]\nclass = dislike", fillcolor="#f6d5bd"] ;
22 -> 26 ;
27 [label="height <= -1.408\ngini = 0.459\nsamples = 14\nvalue = [5, 9]\nclass = like", fillcolor="#a7d3f3"] ;
19 -> 27 ;
28 [label="gini = 0.375\nsamples = 4\nvalue = [3, 1]\nclass = dislike", fillcolor="#eeab7b"] ;
27 -> 28 ;
29 [label="height <= -1.337\ngini = 0.32\nsamples = 10\nvalue = [2, 8]\nclass = like", fillcolor="#6ab6ec"] ;
27 -> 29 ;
30 [label="gini = 0.444\nsamples = 6\nvalue = [2, 4]\nclass = like", fillcolor="#9ccef2"] ;
29 -> 30 ;
31 [label="gini = 0.0\nsamples = 4\nvalue = [0, 4]\nclass = like", fillcolor="#399de5"] ;
29 -> 31 ;
32 [label="age <= 0.008\ngini = 0.408\nsamples = 7\nvalue = [5, 2]\nclass = dislike", fillcolor="#efb388"] ;
18 -> 32 ;
33 [label="height <= -1.126\ngini = 0.444\nsamples = 3\nvalue = [2, 1]\nclass = dislike", fillcolor="#f2c09c"] ;
32 -> 33 ;
34 [label="gini = 0.0\nsamples = 2\nvalue = [2, 0]\nclass = dislike", fillcolor="#e58139"] ;
33 -> 34 ;
35 [label="gini = 0.0\nsamples = 1\nvalue = [0, 1]\nclass = like", fillcolor="#399de5"] ;
33 -> 35 ;
36 [label="height <= -1.126\ngini = 0.375\nsamples = 4\nvalue = [3, 1]\nclass = dislike", fillcolor="#eeab7b"] ;
32 -> 36 ;
37 [label="gini = 0.5\nsamples = 2\nvalue = [1, 1]\nclass = dislike", fillcolor="#ffffff"] ;
36 -> 37 ;
38 [label="gini = 0.0\nsamples = 2\nvalue = [2, 0]\nclass = dislike", fillcolor="#e58139"] ;
36 -> 38 ;
39 [label="age <= 0.008\ngini = 0.219\nsamples = 8\nvalue = [1, 7]\nclass = like", fillcolor="#55abe9"] ;
17 -> 39 ;
40 [label="gini = 0.0\nsamples = 4\nvalue = [0, 4]\nclass = like", fillcolor="#399de5"] ;
39 -> 40 ;
41 [label="height <= -0.985\ngini = 0.375\nsamples = 4\nvalue = [1, 3]\nclass = like", fillcolor="#7bbeee"] ;
39 -> 41 ;
42 [label="gini = 0.0\nsamples = 1\nvalue = [0, 1]\nclass = like", fillcolor="#399de5"] ;
41 -> 42 ;
43 [label="gini = 0.444\nsamples = 3\nvalue = [1, 2]\nclass = like", fillcolor="#9ccef2"] ;
41 -> 43 ;
44 [label="height <= -0.773\ngini = 0.499\nsamples = 61\nvalue = [32, 29]\nclass = dislike", fillcolor="#fdf3ec"] ;
16 -> 44 ;
45 [label="height <= -0.844\ngini = 0.459\nsamples = 14\nvalue = [9, 5]\nclass = dislike", fillcolor="#f3c7a7"] ;
44 -> 45 ;
46 [label="gender <= -0.008\ngini = 0.49\nsamples = 7\nvalue = [4, 3]\nclass = dislike", fillcolor="#f8e0ce"] ;
45 -> 46 ;
47 [label="gini = 0.5\nsamples = 4\nvalue = [2, 2]\nclass = dislike", fillcolor="#ffffff"] ;
46 -> 47 ;
48 [label="gini = 0.444\nsamples = 3\nvalue = [2, 1]\nclass = dislike", fillcolor="#f2c09c"] ;
46 -> 48 ;
49 [label="gender <= -0.008\ngini = 0.408\nsamples = 7\nvalue = [5, 2]\nclass = dislike", fillcolor="#efb388"] ;
45 -> 49 ;
50 [label="gini = 0.375\nsamples = 4\nvalue = [3, 1]\nclass = dislike", fillcolor="#eeab7b"] ;
49 -> 50 ;
51 [label="gini = 0.444\nsamples = 3\nvalue = [2, 1]\nclass = dislike", fillcolor="#f2c09c"] ;
49 -> 51 ;
52 [label="height <= -0.561\ngini = 0.5\nsamples = 47\nvalue = [23, 24]\nclass = like", fillcolor="#f7fbfe"] ;
44 -> 52 ;
53 [label="age <= 0.008\ngini = 0.491\nsamples = 23\nvalue = [10, 13]\nclass = like", fillcolor="#d1e8f9"] ;
52 -> 53 ;
54 [label="height <= -0.632\ngini = 0.444\nsamples = 15\nvalue = [5, 10]\nclass = like", fillcolor="#9ccef2"] ;
53 -> 54 ;
55 [label="height <= -0.703\ngini = 0.494\nsamples = 9\nvalue = [4, 5]\nclass = like", fillcolor="#d7ebfa"] ;
54 -> 55 ;
56 [label="gini = 0.5\nsamples = 4\nvalue = [2, 2]\nclass = dislike", fillcolor="#ffffff"] ;
55 -> 56 ;
57 [label="gini = 0.48\nsamples = 5\nvalue = [2, 3]\nclass = like", fillcolor="#bddef6"] ;
55 -> 57 ;
58 [label="gini = 0.278\nsamples = 6\nvalue = [1, 5]\nclass = like", fillcolor="#61b1ea"] ;
54 -> 58 ;
59 [label="height <= -0.703\ngini = 0.469\nsamples = 8\nvalue = [5, 3]\nclass = dislike", fillcolor="#f5cdb0"] ;
53 -> 59 ;
60 [label="gini = 0.5\nsamples = 2\nvalue = [1, 1]\nclass = dislike", fillcolor="#ffffff"] ;
59 -> 60 ;
61 [label="height <= -0.632\ngini = 0.444\nsamples = 6\nvalue = [4, 2]\nclass = dislike", fillcolor="#f2c09c"] ;
59 -> 61 ;
62 [label="gini = 0.0\nsamples = 1\nvalue = [1, 0]\nclass = dislike", fillcolor="#e58139"] ;
61 -> 62 ;
63 [label="gini = 0.48\nsamples = 5\nvalue = [3, 2]\nclass = dislike", fillcolor="#f6d5bd"] ;
61 -> 63 ;
64 [label="height <= -0.42\ngini = 0.497\nsamples = 24\nvalue = [13, 11]\nclass = dislike", fillcolor="#fbece1"] ;
52 -> 64 ;
65 [label="height <= -0.491\ngini = 0.48\nsamples = 15\nvalue = [9, 6]\nclass = dislike", fillcolor="#f6d5bd"] ;
64 -> 65 ;
66 [label="gender <= -0.008\ngini = 0.49\nsamples = 7\nvalue = [4, 3]\nclass = dislike", fillcolor="#f8e0ce"] ;
65 -> 66 ;
67 [label="gini = 0.444\nsamples = 3\nvalue = [1, 2]\nclass = like", fillcolor="#9ccef2"] ;
66 -> 67 ;
68 [label="gini = 0.375\nsamples = 4\nvalue = [3, 1]\nclass = dislike", fillcolor="#eeab7b"] ;
66 -> 68 ;
69 [label="gender <= -0.008\ngini = 0.469\nsamples = 8\nvalue = [5, 3]\nclass = dislike", fillcolor="#f5cdb0"] ;
65 -> 69 ;
70 [label="gini = 0.0\nsamples = 2\nvalue = [2, 0]\nclass = dislike", fillcolor="#e58139"] ;
69 -> 70 ;
71 [label="gini = 0.5\nsamples = 6\nvalue = [3, 3]\nclass = dislike", fillcolor="#ffffff"] ;
69 -> 71 ;
72 [label="gender <= -0.008\ngini = 0.494\nsamples = 9\nvalue = [4, 5]\nclass = like", fillcolor="#d7ebfa"] ;
64 -> 72 ;
73 [label="height <= -0.35\ngini = 0.48\nsamples = 5\nvalue = [2, 3]\nclass = like", fillcolor="#bddef6"] ;
72 -> 73 ;
74 [label="gini = 0.5\nsamples = 2\nvalue = [1, 1]\nclass = dislike", fillcolor="#ffffff"] ;
73 -> 74 ;
75 [label="gini = 0.444\nsamples = 3\nvalue = [1, 2]\nclass = like", fillcolor="#9ccef2"] ;
73 -> 75 ;
76 [label="height <= -0.35\ngini = 0.5\nsamples = 4\nvalue = [2, 2]\nclass = dislike", fillcolor="#ffffff"] ;
72 -> 76 ;
77 [label="gini = 0.444\nsamples = 3\nvalue = [1, 2]\nclass = like", fillcolor="#9ccef2"] ;
76 -> 77 ;
78 [label="gini = 0.0\nsamples = 1\nvalue = [1, 0]\nclass = dislike", fillcolor="#e58139"] ;
76 -> 78 ;
79 [label="gender <= -0.008\ngini = 0.42\nsamples = 10\nvalue = [3, 7]\nclass = like", fillcolor="#8ec7f0"] ;
15 -> 79 ;
80 [label="height <= -0.209\ngini = 0.444\nsamples = 6\nvalue = [2, 4]\nclass = like", fillcolor="#9ccef2"] ;
79 -> 80 ;
81 [label="gini = 0.5\nsamples = 4\nvalue = [2, 2]\nclass = dislike", fillcolor="#ffffff"] ;
80 -> 81 ;
82 [label="gini = 0.0\nsamples = 2\nvalue = [0, 2]\nclass = like", fillcolor="#399de5"] ;
80 -> 82 ;
83 [label="height <= -0.173\ngini = 0.375\nsamples = 4\nvalue = [1, 3]\nclass = like", fillcolor="#7bbeee"] ;
79 -> 83 ;
84 [label="gini = 0.0\nsamples = 2\nvalue = [0, 2]\nclass = like", fillcolor="#399de5"] ;
83 -> 84 ;
85 [label="gini = 0.5\nsamples = 2\nvalue = [1, 1]\nclass = dislike", fillcolor="#ffffff"] ;
83 -> 85 ;
86 [label="age <= 0.008\ngini = 0.469\nsamples = 8\nvalue = [5, 3]\nclass = dislike", fillcolor="#f5cdb0"] ;
14 -> 86 ;
87 [label="gini = 0.375\nsamples = 4\nvalue = [3, 1]\nclass = dislike", fillcolor="#eeab7b"] ;
86 -> 87 ;
88 [label="gini = 0.5\nsamples = 4\nvalue = [2, 2]\nclass = dislike", fillcolor="#ffffff"] ;
86 -> 88 ;
89 [label="age <= 0.008\ngini = 0.375\nsamples = 12\nvalue = [3, 9]\nclass = like", fillcolor="#7bbeee"] ;
13 -> 89 ;
90 [label="height <= 0.073\ngini = 0.5\nsamples = 6\nvalue = [3, 3]\nclass = dislike", fillcolor="#ffffff"] ;
89 -> 90 ;
91 [label="gini = 0.444\nsamples = 3\nvalue = [2, 1]\nclass = dislike", fillcolor="#f2c09c"] ;
90 -> 91 ;
92 [label="gini = 0.444\nsamples = 3\nvalue = [1, 2]\nclass = like", fillcolor="#9ccef2"] ;
90 -> 92 ;
93 [label="gini = 0.0\nsamples = 6\nvalue = [0, 6]\nclass = like", fillcolor="#399de5"] ;
89 -> 93 ;
94 [label="height <= 0.215\ngini = 0.375\nsamples = 8\nvalue = [6, 2]\nclass = dislike", fillcolor="#eeab7b"] ;
12 -> 94 ;
95 [label="gender <= -0.008\ngini = 0.444\nsamples = 3\nvalue = [2, 1]\nclass = dislike", fillcolor="#f2c09c"] ;
94 -> 95 ;
96 [label="gini = 0.0\nsamples = 1\nvalue = [1, 0]\nclass = dislike", fillcolor="#e58139"] ;
95 -> 96 ;
97 [label="gini = 0.5\nsamples = 2\nvalue = [1, 1]\nclass = dislike", fillcolor="#ffffff"] ;
95 -> 97 ;
98 [label="gender <= -0.008\ngini = 0.32\nsamples = 5\nvalue = [4, 1]\nclass = dislike", fillcolor="#eca06a"] ;
94 -> 98 ;
99 [label="gini = 0.444\nsamples = 3\nvalue = [2, 1]\nclass = dislike", fillcolor="#f2c09c"] ;
98 -> 99 ;
100 [label="gini = 0.0\nsamples = 2\nvalue = [2, 0]\nclass = dislike", fillcolor="#e58139"] ;
98 -> 100 ;
101 [label="gender <= -0.008\ngini = 0.415\nsamples = 17\nvalue = [5, 12]\nclass = like", fillcolor="#8bc6f0"] ;
11 -> 101 ;
102 [label="height <= 0.356\ngini = 0.494\nsamples = 9\nvalue = [4, 5]\nclass = like", fillcolor="#d7ebfa"] ;
101 -> 102 ;
103 [label="gini = 0.0\nsamples = 1\nvalue = [0, 1]\nclass = like", fillcolor="#399de5"] ;
102 -> 103 ;
104 [label="height <= 0.497\ngini = 0.5\nsamples = 8\nvalue = [4, 4]\nclass = dislike", fillcolor="#ffffff"] ;
102 -> 104 ;
105 [label="height <= 0.426\ngini = 0.48\nsamples = 5\nvalue = [3, 2]\nclass = dislike", fillcolor="#f6d5bd"] ;
104 -> 105 ;
106 [label="gini = 0.5\nsamples = 2\nvalue = [1, 1]\nclass = dislike", fillcolor="#ffffff"] ;
105 -> 106 ;
107 [label="gini = 0.444\nsamples = 3\nvalue = [2, 1]\nclass = dislike", fillcolor="#f2c09c"] ;
105 -> 107 ;
108 [label="gini = 0.444\nsamples = 3\nvalue = [1, 2]\nclass = like", fillcolor="#9ccef2"] ;
104 -> 108 ;
109 [label="height <= 0.426\ngini = 0.219\nsamples = 8\nvalue = [1, 7]\nclass = like", fillcolor="#55abe9"] ;
101 -> 109 ;
110 [label="height <= 0.356\ngini = 0.444\nsamples = 3\nvalue = [1, 2]\nclass = like", fillcolor="#9ccef2"] ;
109 -> 110 ;
111 [label="gini = 0.0\nsamples = 1\nvalue = [0, 1]\nclass = like", fillcolor="#399de5"] ;
110 -> 111 ;
112 [label="gini = 0.5\nsamples = 2\nvalue = [1, 1]\nclass = dislike", fillcolor="#ffffff"] ;
110 -> 112 ;
113 [label="gini = 0.0\nsamples = 5\nvalue = [0, 5]\nclass = like", fillcolor="#399de5"] ;
109 -> 113 ;
114 [label="age <= 0.008\ngini = 0.463\nsamples = 11\nvalue = [7, 4]\nclass = dislike", fillcolor="#f4c9aa"] ;
10 -> 114 ;
115 [label="height <= 0.708\ngini = 0.408\nsamples = 7\nvalue = [5, 2]\nclass = dislike", fillcolor="#efb388"] ;
114 -> 115 ;
116 [label="height <= 0.638\ngini = 0.32\nsamples = 5\nvalue = [4, 1]\nclass = dislike", fillcolor="#eca06a"] ;
115 -> 116 ;
117 [label="gini = 0.444\nsamples = 3\nvalue = [2, 1]\nclass = dislike", fillcolor="#f2c09c"] ;
116 -> 117 ;
118 [label="gini = 0.0\nsamples = 2\nvalue = [2, 0]\nclass = dislike", fillcolor="#e58139"] ;
116 -> 118 ;
119 [label="gini = 0.5\nsamples = 2\nvalue = [1, 1]\nclass = dislike", fillcolor="#ffffff"] ;
115 -> 119 ;
120 [label="height <= 0.638\ngini = 0.5\nsamples = 4\nvalue = [2, 2]\nclass = dislike", fillcolor="#ffffff"] ;
114 -> 120 ;
121 [label="gini = 0.5\nsamples = 2\nvalue = [1, 1]\nclass = dislike", fillcolor="#ffffff"] ;
120 -> 121 ;
122 [label="gini = 0.5\nsamples = 2\nvalue = [1, 1]\nclass = dislike", fillcolor="#ffffff"] ;
120 -> 122 ;
123 [label="height <= 0.849\ngini = 0.375\nsamples = 16\nvalue = [4, 12]\nclass = like", fillcolor="#7bbeee"] ;
9 -> 123 ;
124 [label="age <= 0.008\ngini = 0.198\nsamples = 9\nvalue = [1, 8]\nclass = like", fillcolor="#52a9e8"] ;
123 -> 124 ;
125 [label="gini = 0.0\nsamples = 4\nvalue = [0, 4]\nclass = like", fillcolor="#399de5"] ;
124 -> 125 ;
126 [label="gini = 0.32\nsamples = 5\nvalue = [1, 4]\nclass = like", fillcolor="#6ab6ec"] ;
124 -> 126 ;
127 [label="height <= 0.991\ngini = 0.49\nsamples = 7\nvalue = [3, 4]\nclass = like", fillcolor="#cee6f8"] ;
123 -> 127 ;
128 [label="gender <= -0.008\ngini = 0.444\nsamples = 3\nvalue = [2, 1]\nclass = dislike", fillcolor="#f2c09c"] ;
127 -> 128 ;
129 [label="height <= 0.92\ngini = 0.5\nsamples = 2\nvalue = [1, 1]\nclass = dislike", fillcolor="#ffffff"] ;
128 -> 129 ;
130 [label="gini = 0.0\nsamples = 1\nvalue = [0, 1]\nclass = like", fillcolor="#399de5"] ;
129 -> 130 ;
131 [label="gini = 0.0\nsamples = 1\nvalue = [1, 0]\nclass = dislike", fillcolor="#e58139"] ;
129 -> 131 ;
132 [label="gini = 0.0\nsamples = 1\nvalue = [1, 0]\nclass = dislike", fillcolor="#e58139"] ;
128 -> 132 ;
133 [label="gender <= -0.008\ngini = 0.375\nsamples = 4\nvalue = [1, 3]\nclass = like", fillcolor="#7bbeee"] ;
127 -> 133 ;
134 [label="gini = 0.444\nsamples = 3\nvalue = [1, 2]\nclass = like", fillcolor="#9ccef2"] ;
133 -> 134 ;
135 [label="gini = 0.0\nsamples = 1\nvalue = [0, 1]\nclass = like", fillcolor="#399de5"] ;
133 -> 135 ;
136 [label="age <= 0.008\ngini = 0.32\nsamples = 5\nvalue = [4, 1]\nclass = dislike", fillcolor="#eca06a"] ;
8 -> 136 ;
137 [label="gini = 0.0\nsamples = 2\nvalue = [2, 0]\nclass = dislike", fillcolor="#e58139"] ;
136 -> 137 ;
138 [label="gini = 0.444\nsamples = 3\nvalue = [2, 1]\nclass = dislike", fillcolor="#f2c09c"] ;
136 -> 138 ;
139 [label="gini = 0.0\nsamples = 6\nvalue = [0, 6]\nclass = like", fillcolor="#399de5"] ;
7 -> 139 ;
140 [label="gender <= -0.008\ngini = 0.346\nsamples = 9\nvalue = [7, 2]\nclass = dislike", fillcolor="#eca572"] ;
6 -> 140 ;
141 [label="height <= 1.273\ngini = 0.5\nsamples = 4\nvalue = [2, 2]\nclass = dislike", fillcolor="#ffffff"] ;
140 -> 141 ;
142 [label="gini = 0.0\nsamples = 2\nvalue = [2, 0]\nclass = dislike", fillcolor="#e58139"] ;
141 -> 142 ;
143 [label="gini = 0.0\nsamples = 2\nvalue = [0, 2]\nclass = like", fillcolor="#399de5"] ;
141 -> 143 ;
144 [label="gini = 0.0\nsamples = 5\nvalue = [5, 0]\nclass = dislike", fillcolor="#e58139"] ;
140 -> 144 ;
145 [label="height <= 1.52\ngini = 0.397\nsamples = 11\nvalue = [3, 8]\nclass = like", fillcolor="#83c2ef"] ;
5 -> 145 ;
146 [label="gini = 0.0\nsamples = 3\nvalue = [0, 3]\nclass = like", fillcolor="#399de5"] ;
145 -> 146 ;
147 [label="age <= 0.008\ngini = 0.469\nsamples = 8\nvalue = [3, 5]\nclass = like", fillcolor="#b0d8f5"] ;
145 -> 147 ;
148 [label="height <= 1.625\ngini = 0.444\nsamples = 3\nvalue = [1, 2]\nclass = like", fillcolor="#9ccef2"] ;
147 -> 148 ;
149 [label="gini = 0.0\nsamples = 1\nvalue = [1, 0]\nclass = dislike", fillcolor="#e58139"] ;
148 -> 149 ;
150 [label="gini = 0.0\nsamples = 2\nvalue = [0, 2]\nclass = like", fillcolor="#399de5"] ;
148 -> 150 ;
151 [label="height <= 1.625\ngini = 0.48\nsamples = 5\nvalue = [2, 3]\nclass = like", fillcolor="#bddef6"] ;
147 -> 151 ;
152 [label="gini = 0.0\nsamples = 2\nvalue = [0, 2]\nclass = like", fillcolor="#399de5"] ;
151 -> 152 ;
153 [label="gini = 0.444\nsamples = 3\nvalue = [2, 1]\nclass = dislike", fillcolor="#f2c09c"] ;
151 -> 153 ;
154 [label="height <= 1.767\ngini = 0.469\nsamples = 16\nvalue = [10, 6]\nclass = dislike", fillcolor="#f5cdb0"] ;
4 -> 154 ;
155 [label="gini = 0.0\nsamples = 3\nvalue = [3, 0]\nclass = dislike", fillcolor="#e58139"] ;
154 -> 155 ;
156 [label="height <= 1.837\ngini = 0.497\nsamples = 13\nvalue = [7, 6]\nclass = dislike", fillcolor="#fbede3"] ;
154 -> 156 ;
157 [label="gender <= -0.008\ngini = 0.48\nsamples = 5\nvalue = [2, 3]\nclass = like", fillcolor="#bddef6"] ;
156 -> 157 ;
158 [label="gini = 0.5\nsamples = 2\nvalue = [1, 1]\nclass = dislike", fillcolor="#ffffff"] ;
157 -> 158 ;
159 [label="gini = 0.444\nsamples = 3\nvalue = [1, 2]\nclass = like", fillcolor="#9ccef2"] ;
157 -> 159 ;
160 [label="age <= 0.008\ngini = 0.469\nsamples = 8\nvalue = [5, 3]\nclass = dislike", fillcolor="#f5cdb0"] ;
156 -> 160 ;
161 [label="height <= 1.908\ngini = 0.444\nsamples = 3\nvalue = [2, 1]\nclass = dislike", fillcolor="#f2c09c"] ;
160 -> 161 ;
162 [label="gini = 0.0\nsamples = 1\nvalue = [1, 0]\nclass = dislike", fillcolor="#e58139"] ;
161 -> 162 ;
163 [label="gini = 0.5\nsamples = 2\nvalue = [1, 1]\nclass = dislike", fillcolor="#ffffff"] ;
161 -> 163 ;
164 [label="height <= 1.908\ngini = 0.48\nsamples = 5\nvalue = [3, 2]\nclass = dislike", fillcolor="#f6d5bd"] ;
160 -> 164 ;
165 [label="gini = 0.5\nsamples = 2\nvalue = [1, 1]\nclass = dislike", fillcolor="#ffffff"] ;
164 -> 165 ;
166 [label="gini = 0.444\nsamples = 3\nvalue = [2, 1]\nclass = dislike", fillcolor="#f2c09c"] ;
164 -> 166 ;
}